//Numpy array shape [64]
//Min -0.109710693359
//Max 0.155883789062
//Number of zeros 8

#ifndef PARAMEST_NN_B16_H_
#define PARAMEST_NN_B16_H_

PARAMEST_NN_bias16_t PARAMEST_NN_b16[64] = {0.036743164062500, 0.012939453125000, 0.009277343750000, 0.025115966796875, -0.013946533203125, 0.052520751953125, 0.057128906250000, 0.040679931640625, 0.021606445312500, 0.064392089843750, 0.088073730468750, 0.041900634765625, 0.000000000000000, -0.028472900390625, 0.022888183593750, 0.049102783203125, 0.082550048828125, 0.017913818359375, -0.011810302734375, 0.091552734375000, 0.014495849609375, 0.057983398437500, 0.045867919921875, 0.000000000000000, -0.017059326171875, -0.014923095703125, -0.019836425781250, 0.012817382812500, 0.033294677734375, 0.037963867187500, 0.075958251953125, 0.048309326171875, 0.058807373046875, 0.021942138671875, -0.109710693359375, -0.037384033203125, 0.008911132812500, 0.000000000000000, 0.056304931640625, 0.036529541015625, -0.041442871093750, -0.031280517578125, 0.000000000000000, -0.012084960937500, 0.000000000000000, 0.000000000000000, 0.000000000000000, 0.155883789062500, -0.015563964843750, 0.030120849609375, 0.126403808593750, -0.007781982421875, -0.000915527343750, 0.000000000000000, 0.088378906250000, -0.002105712890625, -0.028350830078125, -0.013854980468750, -0.024475097656250, -0.038024902343750, -0.021514892578125, 0.048461914062500, -0.078155517578125, -0.026214599609375};

#endif
